<?xml version="1.0"?>
<opencv_storage>
<stage10>
  <maxWeakCount>15</maxWeakCount>
  <stageThreshold>-7.3086857795715332e-01</stageThreshold>
  <weakClassifiers>
    <_>
      <internalNodes>
        0 -1 6328 1.2114109471440315e-02</internalNodes>
      <leafValues>
        -2.4668435752391815e-01 5.0605779886245728e-01</leafValues></_>
    <_>
      <internalNodes>
        0 -1 98485 -2.9564644210040569e-03</internalNodes>
      <leafValues>
        2.3969259858131409e-01 -4.8702171444892883e-01</leafValues></_>
    <_>
      <internalNodes>
        0 -1 12817 2.0444754045456648e-04</internalNodes>
      <leafValues>
        1.4915947616100311e-01 -6.5119016170501709e-01</leafValues></_>
    <_>
      <internalNodes>
        0 -1 125239 4.8295401036739349e-02</internalNodes>
      <leafValues>
        -2.0829740166664124e-01 5.0315374135971069e-01</leafValues></_>
    <_>
      <internalNodes>
        0 -1 161070 -1.8385242437943816e-03</internalNodes>
      <leafValues>
        -7.2771948575973511e-01 1.3269652426242828e-01</leafValues></_>
    <_>
      <internalNodes>
        0 -1 96395 -1.2246717512607574e-01</internalNodes>
      <leafValues>
        7.1217507123947144e-02 -8.1503093242645264e-01</leafValues></_>
    <_>
      <internalNodes>
        0 -1 84844 -7.3404842987656593e-03</internalNodes>
      <leafValues>
        5.5306214094161987e-01 -1.8347631394863129e-01</leafValues></_>
    <_>
      <internalNodes>
        0 -1 143622 -1.2513331603258848e-04</internalNodes>
      <leafValues>
        3.0744597315788269e-01 -2.7630800008773804e-01</leafValues></_>
    <_>
      <internalNodes>
        0 -1 148289 6.1536004068329930e-05</internalNodes>
      <leafValues>
        1.6195370256900787e-01 -4.8183616995811462e-01</leafValues></_>
    <_>
      <internalNodes>
        0 -1 12813 -1.4633280807174742e-04</internalNodes>
      <leafValues>
        -7.1145921945571899e-01 1.2228506803512573e-01</leafValues></_>
    <_>
      <internalNodes>
        0 -1 47799 -6.4225918613374233e-03</internalNodes>
      <leafValues>
        3.5643905401229858e-01 -2.4112445116043091e-01</leafValues></_>
    <_>
      <internalNodes>
        0 -1 161172 -7.1633490733802319e-05</internalNodes>
      <leafValues>
        -5.2814722061157227e-01 1.3848920166492462e-01</leafValues></_>
    <_>
      <internalNodes>
        0 -1 49284 -1.6449261456727982e-02</internalNodes>
      <leafValues>
        3.8842618465423584e-01 -2.3534311354160309e-01</leafValues></_>
    <_>
      <internalNodes>
        0 -1 114327 3.1009865924715996e-03</internalNodes>
      <leafValues>
        -1.9802574813365936e-01 6.8073570728302002e-01</leafValues></_>
    <_>
      <internalNodes>
        0 -1 112808 -1.2686755508184433e-03</internalNodes>
      <leafValues>
        -8.6128938198089600e-01 1.2715090811252594e-01</leafValues></_></weakClassifiers></stage10>
</opencv_storage>
