<?xml version="1.0"?>
<opencv_storage>
<stage9>
  <maxWeakCount>14</maxWeakCount>
  <stageThreshold>-1.0724523067474365e+00</stageThreshold>
  <weakClassifiers>
    <_>
      <internalNodes>
        0 -1 105908 -1.6443576896563172e-04</internalNodes>
      <leafValues>
        5.7959181070327759e-01 -2.5106382369995117e-01</leafValues></_>
    <_>
      <internalNodes>
        0 -1 81362 1.6346094012260437e-01</internalNodes>
      <leafValues>
        -2.9283526539802551e-01 5.0689232349395752e-01</leafValues></_>
    <_>
      <internalNodes>
        0 -1 48129 1.1151519417762756e-01</internalNodes>
      <leafValues>
        -1.3223257660865784e-01 8.0045813322067261e-01</leafValues></_>
    <_>
      <internalNodes>
        0 -1 138763 -4.5981090806890279e-05</internalNodes>
      <leafValues>
        2.9305210709571838e-01 -4.1676676273345947e-01</leafValues></_>
    <_>
      <internalNodes>
        0 -1 161434 6.0167815536260605e-03</internalNodes>
      <leafValues>
        2.0247276127338409e-01 -6.5623044967651367e-01</leafValues></_>
    <_>
      <internalNodes>
        0 -1 143192 -2.2072606952860951e-05</internalNodes>
      <leafValues>
        2.5496304035186768e-01 -4.1306048631668091e-01</leafValues></_>
    <_>
      <internalNodes>
        0 -1 161674 1.2979686725884676e-03</internalNodes>
      <leafValues>
        1.6440331935882568e-01 -6.9163304567337036e-01</leafValues></_>
    <_>
      <internalNodes>
        0 -1 9460 -4.6288885641843081e-04</internalNodes>
      <leafValues>
        -6.4434820413589478e-01 1.4104045927524567e-01</leafValues></_>
    <_>
      <internalNodes>
        0 -1 161236 -2.7514798566699028e-03</internalNodes>
      <leafValues>
        -6.1392521858215332e-01 1.5568898618221283e-01</leafValues></_>
    <_>
      <internalNodes>
        0 -1 127090 -7.8237010166049004e-04</internalNodes>
      <leafValues>
        -7.3332589864730835e-01 8.5332483053207397e-02</leafValues></_>
    <_>
      <internalNodes>
        0 -1 25423 -3.1349726021289825e-02</internalNodes>
      <leafValues>
        6.3308924436569214e-01 -1.7327067255973816e-01</leafValues></_>
    <_>
      <internalNodes>
        0 -1 127609 -1.1358376650605351e-04</internalNodes>
      <leafValues>
        3.7149012088775635e-01 -3.0184963345527649e-01</leafValues></_>
    <_>
      <internalNodes>
        0 -1 111017 4.8913981299847364e-04</internalNodes>
      <leafValues>
        -2.4003794789314270e-01 4.3787869811058044e-01</leafValues></_>
    <_>
      <internalNodes>
        0 -1 89799 -1.6692900098860264e-03</internalNodes>
      <leafValues>
        3.5109817981719971e-01 -2.8926792740821838e-01</leafValues></_></weakClassifiers></stage9>
</opencv_storage>
