<?xml version="1.0"?>
<opencv_storage>
<stage4>
  <maxWeakCount>11</maxWeakCount>
  <stageThreshold>-8.5147231817245483e-01</stageThreshold>
  <weakClassifiers>
    <_>
      <internalNodes>
        0 -1 126536 -1.2078397907316685e-02</internalNodes>
      <leafValues>
        7.0890837907791138e-01 -1.7611026763916016e-01</leafValues></_>
    <_>
      <internalNodes>
        0 -1 114387 -2.6802320498973131e-03</internalNodes>
      <leafValues>
        6.7358148097991943e-01 -2.1006059646606445e-01</leafValues></_>
    <_>
      <internalNodes>
        0 -1 155196 4.2808410944417119e-04</internalNodes>
      <leafValues>
        2.6538085937500000e-01 -6.9625616073608398e-01</leafValues></_>
    <_>
      <internalNodes>
        0 -1 10046 -5.1248428644612432e-04</internalNodes>
      <leafValues>
        -6.6020196676254272e-01 2.5739476084709167e-01</leafValues></_>
    <_>
      <internalNodes>
        0 -1 9474 6.0792267322540283e-04</internalNodes>
      <leafValues>
        1.6834023594856262e-01 -6.9083869457244873e-01</leafValues></_>
    <_>
      <internalNodes>
        0 -1 47799 -6.1279702931642532e-03</internalNodes>
      <leafValues>
        5.4834163188934326e-01 -3.1021437048912048e-01</leafValues></_>
    <_>
      <internalNodes>
        0 -1 161419 -8.5581274470314384e-04</internalNodes>
      <leafValues>
        -6.4271658658981323e-01 2.9094871878623962e-01</leafValues></_>
    <_>
      <internalNodes>
        0 -1 70203 -3.3401716500520706e-03</internalNodes>
      <leafValues>
        5.6076091527938843e-01 -3.1235694885253906e-01</leafValues></_>
    <_>
      <internalNodes>
        0 -1 70517 -1.5202584676444530e-02</internalNodes>
      <leafValues>
        7.3032951354980469e-01 -2.3363833129405975e-01</leafValues></_>
    <_>
      <internalNodes>
        0 -1 162058 -8.7426829850301147e-05</internalNodes>
      <leafValues>
        -5.8259332180023193e-01 2.4468214809894562e-01</leafValues></_>
    <_>
      <internalNodes>
        0 -1 60424 -9.4558077398687601e-04</internalNodes>
      <leafValues>
        -8.3521562814712524e-01 1.6033405065536499e-01</leafValues></_></weakClassifiers></stage4>
</opencv_storage>
