<?xml version="1.0"?>
<opencv_storage>
<stage2>
  <maxWeakCount>8</maxWeakCount>
  <stageThreshold>-8.9609140157699585e-01</stageThreshold>
  <weakClassifiers>
    <_>
      <internalNodes>
        0 -1 125944 -2.6577958837151527e-02</internalNodes>
      <leafValues>
        8.3269959688186646e-01 -3.1316187977790833e-01</leafValues></_>
    <_>
      <internalNodes>
        0 -1 13089 7.1783433668315411e-03</internalNodes>
      <leafValues>
        -5.0971132516860962e-01 5.5897986888885498e-01</leafValues></_>
    <_>
      <internalNodes>
        0 -1 113422 -1.7297512385994196e-03</internalNodes>
      <leafValues>
        4.1972467303276062e-01 -5.1112157106399536e-01</leafValues></_>
    <_>
      <internalNodes>
        0 -1 75891 1.8333606421947479e-02</internalNodes>
      <leafValues>
        -2.9152512550354004e-01 6.6991817951202393e-01</leafValues></_>
    <_>
      <internalNodes>
        0 -1 114042 -3.4280244261026382e-02</internalNodes>
      <leafValues>
        6.4153987169265747e-01 -3.3314138650894165e-01</leafValues></_>
    <_>
      <internalNodes>
        0 -1 13374 1.5491361409658566e-05</internalNodes>
      <leafValues>
        2.9350602626800537e-01 -6.1301302909851074e-01</leafValues></_>
    <_>
      <internalNodes>
        0 -1 13192 -4.9709971062839031e-04</internalNodes>
      <leafValues>
        -7.5144517421722412e-01 2.0664966106414795e-01</leafValues></_>
    <_>
      <internalNodes>
        0 -1 97702 -4.4190930202603340e-03</internalNodes>
      <leafValues>
        5.6241416931152344e-01 -3.5363164544105530e-01</leafValues></_></weakClassifiers></stage2>
</opencv_storage>
