<?xml version="1.0"?>
<opencv_storage>
<stage6>
  <maxWeakCount>15</maxWeakCount>
  <stageThreshold>-1.4957146644592285e+00</stageThreshold>
  <weakClassifiers>
    <_>
      <internalNodes>
        0 -1 71398 1.9084532558917999e-01</internalNodes>
      <leafValues>
        -5.8299177885055542e-01 3.6090224981307983e-01</leafValues></_>
    <_>
      <internalNodes>
        0 -1 113555 -1.6337743727490306e-04</internalNodes>
      <leafValues>
        2.6814684271812439e-01 -4.5358881354331970e-01</leafValues></_>
    <_>
      <internalNodes>
        0 -1 162067 1.3110748841427267e-04</internalNodes>
      <leafValues>
        1.6317242383956909e-01 -6.0627442598342896e-01</leafValues></_>
    <_>
      <internalNodes>
        0 -1 162067 -5.0185102736577392e-05</internalNodes>
      <leafValues>
        -5.9747248888015747e-01 2.1373757719993591e-01</leafValues></_>
    <_>
      <internalNodes>
        0 -1 4101 3.4701074473559856e-03</internalNodes>
      <leafValues>
        9.2752009630203247e-02 -7.7013957500457764e-01</leafValues></_>
    <_>
      <internalNodes>
        0 -1 69220 1.4514662325382233e-01</internalNodes>
      <leafValues>
        -1.5548476576805115e-01 6.7827439308166504e-01</leafValues></_>
    <_>
      <internalNodes>
        0 -1 147695 -5.0546666898299009e-05</internalNodes>
      <leafValues>
        2.9042044281959534e-01 -3.5036849975585938e-01</leafValues></_>
    <_>
      <internalNodes>
        0 -1 12809 -6.3780695199966431e-05</internalNodes>
      <leafValues>
        -7.0207875967025757e-01 1.1882685124874115e-01</leafValues></_>
    <_>
      <internalNodes>
        0 -1 133390 -5.6192613556049764e-05</internalNodes>
      <leafValues>
        2.7486592531204224e-01 -3.3039468526840210e-01</leafValues></_>
    <_>
      <internalNodes>
        0 -1 89660 -1.7327092587947845e-02</internalNodes>
      <leafValues>
        3.7256008386611938e-01 -2.5349351763725281e-01</leafValues></_>
    <_>
      <internalNodes>
        0 -1 80420 -4.6424390748143196e-03</internalNodes>
      <leafValues>
        4.5518267154693604e-01 -1.7074812948703766e-01</leafValues></_>
    <_>
      <internalNodes>
        0 -1 120949 2.0625773817300797e-02</internalNodes>
      <leafValues>
        -1.6033776104450226e-01 5.7809531688690186e-01</leafValues></_>
    <_>
      <internalNodes>
        0 -1 161303 1.1859651422128081e-03</internalNodes>
      <leafValues>
        1.5958932042121887e-01 -5.4149895906448364e-01</leafValues></_>
    <_>
      <internalNodes>
        0 -1 161303 -1.3394826091825962e-03</internalNodes>
      <leafValues>
        -5.0111359357833862e-01 1.5389969944953918e-01</leafValues></_>
    <_>
      <internalNodes>
        0 -1 128238 -1.0769833624362946e-01</internalNodes>
      <leafValues>
        -3.0008941888809204e-01 2.8873673081398010e-01</leafValues></_></weakClassifiers></stage6>
</opencv_storage>
