<?xml version="1.0"?>
<opencv_storage>
<stage0>
  <maxWeakCount>6</maxWeakCount>
  <stageThreshold>-1.5727354288101196e+00</stageThreshold>
  <weakClassifiers>
    <_>
      <internalNodes>
        0 -1 125980 -6.0501851141452789e-02</internalNodes>
      <leafValues>
        7.4158817529678345e-01 -6.9805681705474854e-01</leafValues></_>
    <_>
      <internalNodes>
        0 -1 121924 -6.3622131943702698e-02</internalNodes>
      <leafValues>
        -8.2930785417556763e-01 2.7491471171379089e-01</leafValues></_>
    <_>
      <internalNodes>
        0 -1 120867 3.8557805120944977e-02</internalNodes>
      <leafValues>
        -3.2340890169143677e-01 8.0587446689605713e-01</leafValues></_>
    <_>
      <internalNodes>
        0 -1 22424 8.0354943871498108e-02</internalNodes>
      <leafValues>
        -3.4977063536643982e-01 6.7209661006927490e-01</leafValues></_>
    <_>
      <internalNodes>
        0 -1 12817 3.7128513213247061e-04</internalNodes>
      <leafValues>
        2.6883080601692200e-01 -7.7887213230133057e-01</leafValues></_>
    <_>
      <internalNodes>
        0 -1 12817 -4.4573124614544213e-04</internalNodes>
      <leafValues>
        -8.6962014436721802e-01 3.0245837569236755e-01</leafValues></_></weakClassifiers></stage0>
</opencv_storage>
