<?xml version="1.0"?>
<opencv_storage>
<stage1>
  <maxWeakCount>7</maxWeakCount>
  <stageThreshold>-1.9428492784500122e+00</stageThreshold>
  <weakClassifiers>
    <_>
      <internalNodes>
        0 -1 9104 6.7424491047859192e-02</internalNodes>
      <leafValues>
        -6.8041235208511353e-01 5.8024692535400391e-01</leafValues></_>
    <_>
      <internalNodes>
        0 -1 127285 -7.0173628046177328e-05</internalNodes>
      <leafValues>
        4.2354461550712585e-01 -6.2544757127761841e-01</leafValues></_>
    <_>
      <internalNodes>
        0 -1 13102 1.5688370913267136e-02</internalNodes>
      <leafValues>
        -5.2139347791671753e-01 4.1144409775733948e-01</leafValues></_>
    <_>
      <internalNodes>
        0 -1 103657 1.9394372357055545e-03</internalNodes>
      <leafValues>
        -3.9684933423995972e-01 5.4682439565658569e-01</leafValues></_>
    <_>
      <internalNodes>
        0 -1 138272 -4.8238514864351600e-05</internalNodes>
      <leafValues>
        3.8888767361640930e-01 -4.4072318077087402e-01</leafValues></_>
    <_>
      <internalNodes>
        0 -1 13011 1.9672165217343718e-04</internalNodes>
      <leafValues>
        2.5218966603279114e-01 -7.2307115793228149e-01</leafValues></_>
    <_>
      <internalNodes>
        0 -1 127609 -3.9947833283804357e-04</internalNodes>
      <leafValues>
        4.6978697180747986e-01 -3.6533555388450623e-01</leafValues></_></weakClassifiers></stage1>
</opencv_storage>
