<?xml version="1.0"?>
<opencv_storage>
<cascade>
  <stageType>BOOST</stageType>
  <featureType>HAAR</featureType>
  <height>24</height>
  <width>24</width>
  <stageParams>
    <boostType>GAB</boostType>
    <minHitRate>9.9500000476837158e-01</minHitRate>
    <maxFalseAlarm>5.0000000000000000e-01</maxFalseAlarm>
    <weightTrimRate>9.4999999999999996e-01</weightTrimRate>
    <maxDepth>1</maxDepth>
    <maxWeakCount>100</maxWeakCount></stageParams>
  <featureParams>
    <maxCatCount>0</maxCatCount>
    <featSize>1</featSize>
    <mode>BASIC</mode></featureParams>
  <stageNum>13</stageNum>
  <stages>
    <!-- stage 0 -->
    <_>
      <maxWeakCount>8</maxWeakCount>
      <stageThreshold>-1.6643065214157104e+00</stageThreshold>
      <weakClassifiers>
        <_>
          <internalNodes>
            0 -1 123 -3.5553835332393646e-02</internalNodes>
          <leafValues>
            7.7984082698822021e-01 -5.3344482183456421e-01</leafValues></_>
        <_>
          <internalNodes>
            0 -1 125 -4.9472990212962031e-05</internalNodes>
          <leafValues>
            4.9187961220741272e-01 -5.3295093774795532e-01</leafValues></_>
        <_>
          <internalNodes>
            0 -1 22 5.7385870604775846e-05</internalNodes>
          <leafValues>
            -5.9722179174423218e-01 3.6560913920402527e-01</leafValues></_>
        <_>
          <internalNodes>
            0 -1 87 2.1947473214822821e-05</internalNodes>
          <leafValues>
            -3.9444130659103394e-01 4.5939967036247253e-01</leafValues></_>
        <_>
          <internalNodes>
            0 -1 59 -1.7379160970449448e-02</internalNodes>
          <leafValues>
            6.6169571876525879e-01 -2.8263300657272339e-01</leafValues></_>
        <_>
          <internalNodes>
            0 -1 12 -1.4429989096242934e-04</internalNodes>
          <leafValues>
            -7.4777024984359741e-01 3.0325576663017273e-01</leafValues></_>
        <_>
          <internalNodes>
            0 -1 70 -2.1933384705334902e-03</internalNodes>
          <leafValues>
            6.0420954227447510e-01 -3.5295987129211426e-01</leafValues></_>
        <_>
          <internalNodes>
            0 -1 111 -2.6575276628136635e-02</internalNodes>
          <leafValues>
            7.6909381151199341e-01 -2.3674152791500092e-01</leafValues></_></weakClassifiers></_>
    <!-- stage 1 -->
    <_>
      <maxWeakCount>8</maxWeakCount>
      <stageThreshold>-1.4418137073516846e+00</stageThreshold>
      <weakClassifiers>
        <_>
          <internalNodes>
            0 -1 137 -3.9263747632503510e-02</internalNodes>
          <leafValues>
            7.1500629186630249e-01 -5.3327572345733643e-01</leafValues></_>
        <_>
          <internalNodes>
            0 -1 108 -1.8000625073909760e-01</internalNodes>
          <leafValues>
            -8.1166523694992065e-01 3.8117763400077820e-01</leafValues></_>
        <_>
          <internalNodes>
            0 -1 13 2.0350530394352973e-04</internalNodes>
          <leafValues>
            2.6997584104537964e-01 -7.8465878963470459e-01</leafValues></_>
        <_>
          <internalNodes>
            0 -1 13 -5.1700061885640025e-04</internalNodes>
          <leafValues>
            -8.4441614151000977e-01 2.1119499206542969e-01</leafValues></_>
        <_>
          <internalNodes>
            0 -1 39 2.3553678765892982e-02</internalNodes>
          <leafValues>
            -3.2285210490226746e-01 7.4289584159851074e-01</leafValues></_>
        <_>
          <internalNodes>
            0 -1 20 5.3583711385726929e-02</internalNodes>
          <leafValues>
            -3.4104740619659424e-01 6.9240152835845947e-01</leafValues></_>
        <_>
          <internalNodes>
            0 -1 174 1.8287976272404194e-03</internalNodes>
          <leafValues>
            3.0733454227447510e-01 -6.4957582950592041e-01</leafValues></_>
        <_>
          <internalNodes>
            0 -1 73 5.2414154633879662e-03</internalNodes>
          <leafValues>
            -3.3031624555587769e-01 4.7412928938865662e-01</leafValues></_></weakClassifiers></_>
    <!-- stage 2 -->
    <_>
      <maxWeakCount>7</maxWeakCount>
      <stageThreshold>-9.4717407226562500e-01</stageThreshold>
      <weakClassifiers>
        <_>
          <internalNodes>
            0 -1 7 6.7818850278854370e-02</internalNodes>
          <leafValues>
            -4.9956709146499634e-01 6.6289305686950684e-01</leafValues></_>
        <_>
          <internalNodes>
            0 -1 138 -1.2553183478303254e-04</internalNodes>
          <leafValues>
            4.1087353229522705e-01 -6.1250776052474976e-01</leafValues></_>
        <_>
          <internalNodes>
            0 -1 128 -9.7781401127576828e-03</internalNodes>
          <leafValues>
            3.8092643022537231e-01 -5.3095424175262451e-01</leafValues></_>
        <_>
          <internalNodes>
            0 -1 140 -1.1942489800276235e-04</internalNodes>
          <leafValues>
            4.3060442805290222e-01 -4.7671562433242798e-01</leafValues></_>
        <_>
          <internalNodes>
            0 -1 166 -9.4051174819469452e-03</internalNodes>
          <leafValues>
            -6.9564908742904663e-01 3.0658018589019775e-01</leafValues></_>
        <_>
          <internalNodes>
            0 -1 45 -6.5083429217338562e-02</internalNodes>
          <leafValues>
            7.7162241935729980e-01 -3.5076701641082764e-01</leafValues></_>
        <_>
          <internalNodes>
            0 -1 27 -8.0458715092390776e-04</internalNodes>
          <leafValues>
            -7.2391694784164429e-01 3.0943748354911804e-01</leafValues></_></weakClassifiers></_>
    <!-- stage 3 -->
    <_>
      <maxWeakCount>11</maxWeakCount>
      <stageThreshold>-1.7977671623229980e+00</stageThreshold>
      <weakClassifiers>
        <_>
          <internalNodes>
            0 -1 62 1.5937742590904236e-01</internalNodes>
          <leafValues>
            -4.2304593324661255e-01 6.6995769739151001e-01</leafValues></_>
        <_>
          <internalNodes>
            0 -1 100 -3.3770606387406588e-04</internalNodes>
          <leafValues>
            4.2592552304267883e-01 -4.0796703100204468e-01</leafValues></_>
        <_>
          <internalNodes>
            0 -1 25 1.9232918566558510e-04</internalNodes>
          <leafValues>
            3.0732589960098267e-01 -5.7679671049118042e-01</leafValues></_>
        <_>
          <internalNodes>
            0 -1 101 4.1539084166288376e-02</internalNodes>
          <leafValues>
            -2.4622797966003418e-01 7.5745749473571777e-01</leafValues></_>
        <_>
          <internalNodes>
            0 -1 32 9.4415284693241119e-03</internalNodes>
          <leafValues>
            -2.7423235774040222e-01 5.0754076242446899e-01</leafValues></_>
        <_>
          <internalNodes>
            0 -1 136 -1.6859885305166245e-02</internalNodes>
          <leafValues>
            4.3512320518493652e-01 -3.8249120116233826e-01</leafValues></_>
        <_>
          <internalNodes>
            0 -1 103 -1.2238391209393740e-03</internalNodes>
          <leafValues>
            4.9151545763015747e-01 -2.9370507597923279e-01</leafValues></_>
        <_>
          <internalNodes>
            0 -1 55 -2.2419454529881477e-02</internalNodes>
          <leafValues>
            5.4452043771743774e-01 -2.2027295827865601e-01</leafValues></_>
        <_>
          <internalNodes>
            0 -1 26 -6.9372041616588831e-04</internalNodes>
          <leafValues>
            -5.9007215499877930e-01 2.4190083146095276e-01</leafValues></_>
        <_>
          <internalNodes>
            0 -1 41 -5.0681498833000660e-03</internalNodes>
          <leafValues>
            5.0624001026153564e-01 -2.8275728225708008e-01</leafValues></_>
        <_>
          <internalNodes>
            0 -1 183 -8.8337073975708336e-05</internalNodes>
          <leafValues>
            -6.8343758583068848e-01 1.8178640305995941e-01</leafValues></_></weakClassifiers></_>
    <!-- stage 4 -->
    <_>
      <maxWeakCount>10</maxWeakCount>
      <stageThreshold>-1.2141765356063843e+00</stageThreshold>
      <weakClassifiers>
        <_>
          <internalNodes>
            0 -1 53 -4.6981725096702576e-01</internalNodes>
          <leafValues>
            -4.2091616988182068e-01 5.5107188224792480e-01</leafValues></_>
        <_>
          <internalNodes>
            0 -1 139 -9.8820819403044879e-05</internalNodes>
          <leafValues>
            3.6766201257705688e-01 -5.1396834850311279e-01</leafValues></_>
        <_>
          <internalNodes>
            0 -1 106 -7.1731554344296455e-03</internalNodes>
          <leafValues>
            3.1543266773223877e-01 -5.2742916345596313e-01</leafValues></_>
        <_>
          <internalNodes>
            0 -1 112 1.3810672680847347e-04</internalNodes>
          <leafValues>
            -3.5858657956123352e-01 4.6383747458457947e-01</leafValues></_>
        <_>
          <internalNodes>
            0 -1 170 -1.2871304526925087e-02</internalNodes>
          <leafValues>
            -7.3670905828475952e-01 1.9963563978672028e-01</leafValues></_>
        <_>
          <internalNodes>
            0 -1 116 -3.1329941703006625e-04</internalNodes>
          <leafValues>
            4.1642123460769653e-01 -3.5290378332138062e-01</leafValues></_>
        <_>
          <internalNodes>
            0 -1 13 4.1104148840531707e-04</internalNodes>
          <leafValues>
            2.0230714976787567e-01 -7.9596436023712158e-01</leafValues></_>
        <_>
          <internalNodes>
            0 -1 19 6.6260956227779388e-02</internalNodes>
          <leafValues>
            -2.6689928770065308e-01 5.1369929313659668e-01</leafValues></_>
        <_>
          <internalNodes>
            0 -1 67 6.0093451291322708e-02</internalNodes>
          <leafValues>
            -3.0160313844680786e-01 6.6274285316467285e-01</leafValues></_>
        <_>
          <internalNodes>
            0 -1 145 -1.4707878290209919e-04</internalNodes>
          <leafValues>
            3.5847741365432739e-01 -3.7167125940322876e-01</leafValues></_></weakClassifiers></_>
    <!-- stage 5 -->
    <_>
      <maxWeakCount>13</maxWeakCount>
      <stageThreshold>-1.2660943269729614e+00</stageThreshold>
      <weakClassifiers>
        <_>
          <internalNodes>
            0 -1 5 1.8431681394577026e-01</internalNodes>
          <leafValues>
            -3.5023772716522217e-01 5.6976741552352905e-01</leafValues></_>
        <_>
          <internalNodes>
            0 -1 84 -8.2181021571159363e-02</internalNodes>
          <leafValues>
            1.9318208098411560e-01 -7.4209904670715332e-01</leafValues></_>
        <_>
          <internalNodes>
            0 -1 104 4.7112805768847466e-03</internalNodes>
          <leafValues>
            -2.3179347813129425e-01 6.4182221889495850e-01</leafValues></_>
        <_>
          <internalNodes>
            0 -1 160 8.5081183351576328e-04</internalNodes>
          <leafValues>
            1.8798822164535522e-01 -6.9571262598037720e-01</leafValues></_>
        <_>
          <internalNodes>
            0 -1 93 -1.3825520873069763e-02</internalNodes>
          <leafValues>
            4.6225073933601379e-01 -2.6849862933158875e-01</leafValues></_>
        <_>
          <internalNodes>
            0 -1 182 -6.6267806687392294e-05</internalNodes>
          <leafValues>
            -5.2417927980422974e-01 2.4701713025569916e-01</leafValues></_>
        <_>
          <internalNodes>
            0 -1 89 -3.9779554936103523e-04</internalNodes>
          <leafValues>
            2.6640257239341736e-01 -4.5701366662979126e-01</leafValues></_>
        <_>
          <internalNodes>
            0 -1 96 3.4690683241933584e-04</internalNodes>
          <leafValues>
            -4.0653145313262939e-01 2.5301322340965271e-01</leafValues></_>
        <_>
          <internalNodes>
            0 -1 24 3.4557661274448037e-04</internalNodes>
          <leafValues>
            1.6070932149887085e-01 -6.8703359365463257e-01</leafValues></_>
        <_>
          <internalNodes>
            0 -1 14 -9.6578139346092939e-04</internalNodes>
          <leafValues>
            -6.6375690698623657e-01 1.3151945173740387e-01</leafValues></_>
        <_>
          <internalNodes>
            0 -1 69 -1.7438528593629599e-03</internalNodes>
          <leafValues>
            4.7511953115463257e-01 -2.2298407554626465e-01</leafValues></_>
        <_>
          <internalNodes>
            0 -1 133 4.6017289161682129e-02</internalNodes>
          <leafValues>
            -1.9671191275119781e-01 4.9730610847473145e-01</leafValues></_>
        <_>
          <internalNodes>
            0 -1 10 -2.6682878378778696e-03</internalNodes>
          <leafValues>
            -7.4408620595932007e-01 1.7141653597354889e-01</leafValues></_></weakClassifiers></_>
    <!-- stage 6 -->
    <_>
      <maxWeakCount>14</maxWeakCount>
      <stageThreshold>-1.2147445678710938e+00</stageThreshold>
      <weakClassifiers>
        <_>
          <internalNodes>
            0 -1 52 1.8115188181400299e-01</internalNodes>
          <leafValues>
            -3.3904108405113220e-01 4.4245523214340210e-01</leafValues></_>
        <_>
          <internalNodes>
            0 -1 95 4.9361573474016041e-05</internalNodes>
          <leafValues>
            -3.5185897350311279e-01 3.3404213190078735e-01</leafValues></_>
        <_>
          <internalNodes>
            0 -1 177 -8.0338754924014211e-04</internalNodes>
          <leafValues>
            -7.2301954030990601e-01 1.6525128483772278e-01</leafValues></_>
        <_>
          <internalNodes>
            0 -1 81 -7.3372260667383671e-03</internalNodes>
          <leafValues>
            5.9853702783584595e-01 -2.0416040718555450e-01</leafValues></_>
        <_>
          <internalNodes>
            0 -1 176 7.4244380812160671e-05</internalNodes>
          <leafValues>
            2.0496219396591187e-01 -5.2927434444427490e-01</leafValues></_>
        <_>
          <internalNodes>
            0 -1 48 -1.4463787898421288e-02</internalNodes>
          <leafValues>
            -9.7879713773727417e-01 1.0890706628561020e-01</leafValues></_>
        <_>
          <internalNodes>
            0 -1 24 -2.0132414647378027e-04</internalNodes>
          <leafValues>
            -7.1333682537078857e-01 1.2453915923833847e-01</leafValues></_>
        <_>
          <internalNodes>
            0 -1 23 2.0973346545360982e-04</internalNodes>
          <leafValues>
            1.6417384147644043e-01 -5.3950315713882446e-01</leafValues></_>
        <_>
          <internalNodes>
            0 -1 146 -1.1994051601504907e-04</internalNodes>
          <leafValues>
            1.8142192065715790e-01 -4.9646088480949402e-01</leafValues></_>
        <_>
          <internalNodes>
            0 -1 169 6.4814481884241104e-03</internalNodes>
          <leafValues>
            1.3017360866069794e-01 -6.5513062477111816e-01</leafValues></_>
        <_>
          <internalNodes>
            0 -1 80 -1.0339079424738884e-02</internalNodes>
          <leafValues>
            6.2340217828750610e-01 -1.7780978977680206e-01</leafValues></_>
        <_>
          <internalNodes>
            0 -1 142 -1.0533306049183011e-03</internalNodes>
          <leafValues>
            5.3737503290176392e-01 -1.4705859124660492e-01</leafValues></_>
        <_>
          <internalNodes>
            0 -1 127 -6.5093561715912074e-05</internalNodes>
          <leafValues>
            2.1661174297332764e-01 -3.9495375752449036e-01</leafValues></_>
        <_>
          <internalNodes>
            0 -1 15 4.6642618253827095e-03</internalNodes>
          <leafValues>
            -3.9705771207809448e-01 2.2490231692790985e-01</leafValues></_></weakClassifiers></_>
    <!-- stage 7 -->
    <_>
      <maxWeakCount>17</maxWeakCount>
      <stageThreshold>-1.0729115009307861e+00</stageThreshold>
      <weakClassifiers>
        <_>
          <internalNodes>
            0 -1 110 3.4071835689246655e-03</internalNodes>
          <leafValues>
            -4.3750000000000000e-01 3.0202579498291016e-01</leafValues></_>
        <_>
          <internalNodes>
            0 -1 165 1.4945061411708593e-04</internalNodes>
          <leafValues>
            1.4979407191276550e-01 -6.9756639003753662e-01</leafValues></_>
        <_>
          <internalNodes>
            0 -1 152 -4.8704991058912128e-05</internalNodes>
          <leafValues>
            2.7553021907806396e-01 -3.4292194247245789e-01</leafValues></_>
        <_>
          <internalNodes>
            0 -1 175 -1.9678653916344047e-04</internalNodes>
          <leafValues>
            -5.0667405128479004e-01 1.7932881414890289e-01</leafValues></_>
        <_>
          <internalNodes>
            0 -1 107 -2.9393881559371948e-03</internalNodes>
          <leafValues>
            3.7907311320304871e-01 -2.4694865942001343e-01</leafValues></_>
        <_>
          <internalNodes>
            0 -1 35 -5.5425162427127361e-03</internalNodes>
          <leafValues>
            3.6177155375480652e-01 -2.6923680305480957e-01</leafValues></_>
        <_>
          <internalNodes>
            0 -1 79 -4.8389299772679806e-03</internalNodes>
          <leafValues>
            4.4602462649345398e-01 -2.0814199745655060e-01</leafValues></_>
        <_>
          <internalNodes>
            0 -1 74 -3.5024494864046574e-03</internalNodes>
          <leafValues>
            4.4155302643775940e-01 -2.3468902707099915e-01</leafValues></_>
        <_>
          <internalNodes>
            0 -1 30 -6.8800093140453100e-04</internalNodes>
          <leafValues>
            -7.2149133682250977e-01 1.7448495328426361e-01</leafValues></_>
        <_>
          <internalNodes>
            0 -1 44 -3.9976723492145538e-02</internalNodes>
          <leafValues>
            5.3952223062515259e-01 -2.1415635943412781e-01</leafValues></_>
        <_>
          <internalNodes>
            0 -1 15 7.7547654509544373e-03</internalNodes>
          <leafValues>
            -4.3705716729164124e-01 2.4029113352298737e-01</leafValues></_>
        <_>
          <internalNodes>
            0 -1 109 2.1957613527774811e-02</internalNodes>
          <leafValues>
            -1.5820577740669250e-01 6.0319560766220093e-01</leafValues></_>
        <_>
          <internalNodes>
            0 -1 8 -1.2069849669933319e-01</internalNodes>
          <leafValues>
            1.8678016960620880e-01 -5.0366663932800293e-01</leafValues></_>
        <_>
          <internalNodes>
            0 -1 4 -1.2002112343907356e-03</internalNodes>
          <leafValues>
            -6.0188227891921997e-01 1.5610587596893311e-01</leafValues></_>
        <_>
          <internalNodes>
            0 -1 163 5.9629524912452325e-05</internalNodes>
          <leafValues>
            2.0086982846260071e-01 -4.4410264492034912e-01</leafValues></_>
        <_>
          <internalNodes>
            0 -1 98 -1.8496261327527463e-04</internalNodes>
          <leafValues>
            1.8565192818641663e-01 -4.6702334284782410e-01</leafValues></_>
        <_>
          <internalNodes>
            0 -1 86 1.1989225167781115e-03</internalNodes>
          <leafValues>
            -2.1041646599769592e-01 4.0749526023864746e-01</leafValues></_></weakClassifiers></_>
    <!-- stage 8 -->
    <_>
      <maxWeakCount>19</maxWeakCount>
      <stageThreshold>-1.2240682840347290e+00</stageThreshold>
      <weakClassifiers>
        <_>
          <internalNodes>
            0 -1 122 -1.2982113659381866e-01</internalNodes>
          <leafValues>
            5.5645161867141724e-01 -2.2420908510684967e-01</leafValues></_>
        <_>
          <internalNodes>
            0 -1 90 -2.6068673469126225e-04</internalNodes>
          <leafValues>
            3.2510593533515930e-01 -3.1542012095451355e-01</leafValues></_>
        <_>
          <internalNodes>
            0 -1 78 -4.3044751510024071e-03</internalNodes>
          <leafValues>
            2.0834413170814514e-01 -4.6761828660964966e-01</leafValues></_>
        <_>
          <internalNodes>
            0 -1 46 -7.1564868092536926e-02</internalNodes>
          <leafValues>
            4.0778508782386780e-01 -2.6665255427360535e-01</leafValues></_>
        <_>
          <internalNodes>
            0 -1 172 7.8325020149350166e-04</internalNodes>
          <leafValues>
            2.2714982926845551e-01 -5.6141811609268188e-01</leafValues></_>
        <_>
          <internalNodes>
            0 -1 171 -3.1769991619512439e-04</internalNodes>
          <leafValues>
            -4.9896997213363647e-01 1.7436985671520233e-01</leafValues></_>
        <_>
          <internalNodes>
            0 -1 147 -1.2028327910229564e-04</internalNodes>
          <leafValues>
            2.4220505356788635e-01 -3.5173776745796204e-01</leafValues></_>
        <_>
          <internalNodes>
            0 -1 144 5.5294856429100037e-02</internalNodes>
          <leafValues>
            -1.4210180938243866e-01 7.5349503755569458e-01</leafValues></_>
        <_>
          <internalNodes>
            0 -1 102 -9.9661969579756260e-04</internalNodes>
          <leafValues>
            4.7806286811828613e-01 -1.5243692696094513e-01</leafValues></_>
        <_>
          <internalNodes>
            0 -1 72 2.5055986043298617e-05</internalNodes>
          <leafValues>
            -2.7420917153358459e-01 3.0597651004791260e-01</leafValues></_>
        <_>
          <internalNodes>
            0 -1 18 1.8304995028302073e-03</internalNodes>
          <leafValues>
            1.2112319469451904e-01 -5.7322812080383301e-01</leafValues></_>
        <_>
          <internalNodes>
            0 -1 121 3.8164733268786222e-05</internalNodes>
          <leafValues>
            -2.3285456001758575e-01 3.6445364356040955e-01</leafValues></_>
        <_>
          <internalNodes>
            0 -1 2 2.0796868950128555e-02</internalNodes>
          <leafValues>
            -2.8584089875221252e-01 2.8821584582328796e-01</leafValues></_>
        <_>
          <internalNodes>
            0 -1 1 2.7324947714805603e-01</internalNodes>
          <leafValues>
            1.2435797601938248e-01 -7.1151554584503174e-01</leafValues></_>
        <_>
          <internalNodes>
            0 -1 50 -1.4846734120510519e-04</internalNodes>
          <leafValues>
            -6.5575432777404785e-01 1.0907983034849167e-01</leafValues></_>
        <_>
          <internalNodes>
            0 -1 158 1.7098411917686462e-03</internalNodes>
          <leafValues>
            -1.9971238076686859e-01 4.0236660838127136e-01</leafValues></_>
        <_>
          <internalNodes>
            0 -1 60 -1.9806843250989914e-02</internalNodes>
          <leafValues>
            3.8454464077949524e-01 -2.3556441068649292e-01</leafValues></_>
        <_>
          <internalNodes>
            0 -1 76 3.9770744740962982e-02</internalNodes>
          <leafValues>
            -1.4498753845691681e-01 6.4327645301818848e-01</leafValues></_>
        <_>
          <internalNodes>
            0 -1 91 -1.3796269195154309e-04</internalNodes>
          <leafValues>
            3.0891370773315430e-01 -2.6397135853767395e-01</leafValues></_></weakClassifiers></_>
    <!-- stage 9 -->
    <_>
      <maxWeakCount>20</maxWeakCount>
      <stageThreshold>-1.1936360597610474e+00</stageThreshold>
      <weakClassifiers>
        <_>
          <internalNodes>
            0 -1 49 -1.8862660508602858e-03</internalNodes>
          <leafValues>
            2.7272728085517883e-01 -3.9449542760848999e-01</leafValues></_>
        <_>
          <internalNodes>
            0 -1 11 -4.7489311546087265e-03</internalNodes>
          <leafValues>
            -7.5287306308746338e-01 1.1225354671478271e-01</leafValues></_>
        <_>
          <internalNodes>
            0 -1 47 -1.4123162627220154e-01</internalNodes>
          <leafValues>
            1.6640420258045197e-01 -4.9584278464317322e-01</leafValues></_>
        <_>
          <internalNodes>
            0 -1 99 -1.2034603423671797e-04</internalNodes>
          <leafValues>
            2.0172978937625885e-01 -3.3504626154899597e-01</leafValues></_>
        <_>
          <internalNodes>
            0 -1 36 -9.7108073532581329e-03</internalNodes>
          <leafValues>
            5.7945638895034790e-01 -1.2520033121109009e-01</leafValues></_>
        <_>
          <internalNodes>
            0 -1 63 1.8470495939254761e-01</internalNodes>
          <leafValues>
            -2.9810526967048645e-01 2.8220573067665100e-01</leafValues></_>
        <_>
          <internalNodes>
            0 -1 164 -4.7328090295195580e-03</internalNodes>
          <leafValues>
            -5.5315631628036499e-01 1.5856470167636871e-01</leafValues></_>
        <_>
          <internalNodes>
            0 -1 22 7.4879871681332588e-03</internalNodes>
          <leafValues>
            -4.7025749087333679e-01 1.5015842020511627e-01</leafValues></_>
        <_>
          <internalNodes>
            0 -1 131 4.3482460081577301e-02</internalNodes>
          <leafValues>
            -1.4796045422554016e-01 5.1637518405914307e-01</leafValues></_>
        <_>
          <internalNodes>
            0 -1 12 -1.4524813741445541e-04</internalNodes>
          <leafValues>
            -6.7923444509506226e-01 1.1574814468622208e-01</leafValues></_>
        <_>
          <internalNodes>
            0 -1 149 1.5188838005997241e-04</internalNodes>
          <leafValues>
            1.1593753099441528e-01 -5.2660322189331055e-01</leafValues></_>
        <_>
          <internalNodes>
            0 -1 58 -6.0019227676093578e-03</internalNodes>
          <leafValues>
            4.7768810391426086e-01 -1.5534441173076630e-01</leafValues></_>
        <_>
          <internalNodes>
            0 -1 154 -5.1029292080784217e-05</internalNodes>
          <leafValues>
            2.7449920773506165e-01 -2.7873921394348145e-01</leafValues></_>
        <_>
          <internalNodes>
            0 -1 62 -6.0481369495391846e-02</internalNodes>
          <leafValues>
            6.8374133110046387e-01 -9.5700159668922424e-02</leafValues></_>
        <_>
          <internalNodes>
            0 -1 157 -1.6419286839663982e-04</internalNodes>
          <leafValues>
            2.3119641840457916e-01 -2.7458077669143677e-01</leafValues></_>
        <_>
          <internalNodes>
            0 -1 129 -2.5886630173772573e-03</internalNodes>
          <leafValues>
            6.0416901111602783e-01 -1.2137752026319504e-01</leafValues></_>
        <_>
          <internalNodes>
            0 -1 40 -6.9396100006997585e-03</internalNodes>
          <leafValues>
            2.8900051116943359e-01 -2.3301109671592712e-01</leafValues></_>
        <_>
          <internalNodes>
            0 -1 16 -5.2864116150885820e-04</internalNodes>
          <leafValues>
            -6.7190706729888916e-01 8.5354208946228027e-02</leafValues></_>
        <_>
          <internalNodes>
            0 -1 120 -1.1846348643302917e-03</internalNodes>
          <leafValues>
            2.3995864391326904e-01 -2.6239749789237976e-01</leafValues></_>
        <_>
          <internalNodes>
            0 -1 92 -9.5733755733817816e-04</internalNodes>
          <leafValues>
            3.9966824650764465e-01 -1.4296519756317139e-01</leafValues></_></weakClassifiers></_>
    <!-- stage 10 -->
    <_>
      <maxWeakCount>23</maxWeakCount>
      <stageThreshold>-1.2726579904556274e+00</stageThreshold>
      <weakClassifiers>
        <_>
          <internalNodes>
            0 -1 178 -7.2784889198374003e-05</internalNodes>
          <leafValues>
            -6.2340968847274780e-01 1.2524084746837616e-01</leafValues></_>
        <_>
          <internalNodes>
            0 -1 114 -1.6706851602066308e-04</internalNodes>
          <leafValues>
            2.1697150170803070e-01 -4.1389861702919006e-01</leafValues></_>
        <_>
          <internalNodes>
            0 -1 178 6.7236469476483762e-05</internalNodes>
          <leafValues>
            1.8200790882110596e-01 -5.5016356706619263e-01</leafValues></_>
        <_>
          <internalNodes>
            0 -1 88 2.1371399634517729e-04</internalNodes>
          <leafValues>
            -2.9759585857391357e-01 2.7976626157760620e-01</leafValues></_>
        <_>
          <internalNodes>
            0 -1 159 -5.0977807404706255e-05</internalNodes>
          <leafValues>
            2.3032049834728241e-01 -3.2956048846244812e-01</leafValues></_>
        <_>
          <internalNodes>
            0 -1 17 -3.7533335853368044e-04</internalNodes>
          <leafValues>
            -6.4752078056335449e-01 8.8447652757167816e-02</leafValues></_>
        <_>
          <internalNodes>
            0 -1 17 7.4676594522316009e-05</internalNodes>
          <leafValues>
            1.4921723306179047e-01 -4.3573620915412903e-01</leafValues></_>
        <_>
          <internalNodes>
            0 -1 128 -1.0498840361833572e-02</internalNodes>
          <leafValues>
            1.5192399919033051e-01 -3.9095360040664673e-01</leafValues></_>
        <_>
          <internalNodes>
            0 -1 33 -4.7585442662239075e-02</internalNodes>
          <leafValues>
            3.0768772959709167e-01 -2.4481636285781860e-01</leafValues></_>
        <_>
          <internalNodes>
            0 -1 115 -5.0579976232256740e-05</internalNodes>
          <leafValues>
            3.5535061359405518e-01 -2.0090210437774658e-01</leafValues></_>
        <_>
          <internalNodes>
            0 -1 141 -6.2312217778526247e-05</internalNodes>
          <leafValues>
            2.0645774900913239e-01 -3.2816556096076965e-01</leafValues></_>
        <_>
          <internalNodes>
            0 -1 34 1.6168743371963501e-01</internalNodes>
          <leafValues>
            -9.2896901071071625e-02 7.8922766447067261e-01</leafValues></_>
        <_>
          <internalNodes>
            0 -1 43 8.8280899217352271e-04</internalNodes>
          <leafValues>
            -3.4045034646987915e-01 2.2732341289520264e-01</leafValues></_>
        <_>
          <internalNodes>
            0 -1 167 -7.7312295616138726e-05</internalNodes>
          <leafValues>
            -4.1236642003059387e-01 1.8833035230636597e-01</leafValues></_>
        <_>
          <internalNodes>
            0 -1 118 1.7978908494114876e-02</internalNodes>
          <leafValues>
            -1.1476926505565643e-01 6.3644134998321533e-01</leafValues></_>
        <_>
          <internalNodes>
            0 -1 54 -4.4868148863315582e-02</internalNodes>
          <leafValues>
            6.0056400299072266e-01 -1.0362657159566879e-01</leafValues></_>
        <_>
          <internalNodes>
            0 -1 173 2.1882283908780664e-04</internalNodes>
          <leafValues>
            1.1815875768661499e-01 -5.5402415990829468e-01</leafValues></_>
        <_>
          <internalNodes>
            0 -1 113 1.6702385619282722e-03</internalNodes>
          <leafValues>
            6.1269417405128479e-02 -8.6588138341903687e-01</leafValues></_>
        <_>
          <internalNodes>
            0 -1 6 -5.3754383698105812e-03</internalNodes>
          <leafValues>
            -7.7089864015579224e-01 6.4676485955715179e-02</leafValues></_>
        <_>
          <internalNodes>
            0 -1 153 -4.0499820897821337e-05</internalNodes>
          <leafValues>
            1.9176912307739258e-01 -3.0355721712112427e-01</leafValues></_>
        <_>
          <internalNodes>
            0 -1 161 -1.0727799963206053e-04</internalNodes>
          <leafValues>
            -3.9441597461700439e-01 1.5376015007495880e-01</leafValues></_>
        <_>
          <internalNodes>
            0 -1 75 6.4654782414436340e-02</internalNodes>
          <leafValues>
            -8.2692563533782959e-02 8.8209450244903564e-01</leafValues></_>
        <_>
          <internalNodes>
            0 -1 66 -2.7987242210656404e-03</internalNodes>
          <leafValues>
            5.0965422391891479e-01 -1.0315779596567154e-01</leafValues></_></weakClassifiers></_>
    <!-- stage 11 -->
    <_>
      <maxWeakCount>24</maxWeakCount>
      <stageThreshold>-1.1666663885116577e+00</stageThreshold>
      <weakClassifiers>
        <_>
          <internalNodes>
            0 -1 68 -5.4188491776585579e-04</internalNodes>
          <leafValues>
            2.5126135349273682e-01 -3.1178310513496399e-01</leafValues></_>
        <_>
          <internalNodes>
            0 -1 37 1.2007712572813034e-01</internalNodes>
          <leafValues>
            -1.0293529182672501e-01 6.4058744907379150e-01</leafValues></_>
        <_>
          <internalNodes>
            0 -1 63 1.9046677649021149e-01</internalNodes>
          <leafValues>
            -2.8917360305786133e-01 2.6484587788581848e-01</leafValues></_>
        <_>
          <internalNodes>
            0 -1 29 -8.8625989155843854e-04</internalNodes>
          <leafValues>
            -7.1229320764541626e-01 1.0883516073226929e-01</leafValues></_>
        <_>
          <internalNodes>
            0 -1 150 -2.4265642277896404e-03</internalNodes>
          <leafValues>
            9.1618888080120087e-02 -7.2245621681213379e-01</leafValues></_>
        <_>
          <internalNodes>
            0 -1 156 -5.2260205848142505e-05</internalNodes>
          <leafValues>
            1.7059732973575592e-01 -3.4531608223915100e-01</leafValues></_>
        <_>
          <internalNodes>
            0 -1 179 9.1371443122625351e-03</internalNodes>
          <leafValues>
            9.3430384993553162e-02 -7.4540990591049194e-01</leafValues></_>
        <_>
          <internalNodes>
            0 -1 77 1.2773362686857581e-03</internalNodes>
          <leafValues>
            -1.7169889807701111e-01 3.9576107263565063e-01</leafValues></_>
        <_>
          <internalNodes>
            0 -1 143 1.0785845108330250e-02</internalNodes>
          <leafValues>
            -1.3601472973823547e-01 6.5489619970321655e-01</leafValues></_>
        <_>
          <internalNodes>
            0 -1 3 3.3035103231668472e-02</internalNodes>
          <leafValues>
            -3.8394421339035034e-01 2.1075782179832458e-01</leafValues></_>
        <_>
          <internalNodes>
            0 -1 51 2.8782279696315527e-03</internalNodes>
          <leafValues>
            1.2323889136314392e-01 -4.6730467677116394e-01</leafValues></_>
        <_>
          <internalNodes>
            0 -1 57 -2.1419185213744640e-03</internalNodes>
          <leafValues>
            2.8830161690711975e-01 -2.0298629999160767e-01</leafValues></_>
        <_>
          <internalNodes>
            0 -1 0 1.3946326449513435e-02</internalNodes>
          <leafValues>
            1.3512273132801056e-01 -5.4813206195831299e-01</leafValues></_>
        <_>
          <internalNodes>
            0 -1 105 4.5438557863235474e-03</internalNodes>
          <leafValues>
            -1.4690133929252625e-01 4.7862058877944946e-01</leafValues></_>
        <_>
          <internalNodes>
            0 -1 119 4.4027391821146011e-02</internalNodes>
          <leafValues>
            -1.0957279056310654e-01 4.9874898791313171e-01</leafValues></_>
        <_>
          <internalNodes>
            0 -1 64 -2.8846655040979385e-03</internalNodes>
          <leafValues>
            3.4244260191917419e-01 -1.6014114022254944e-01</leafValues></_>
        <_>
          <internalNodes>
            0 -1 126 1.7040187958627939e-03</internalNodes>
          <leafValues>
            8.5722103714942932e-02 -7.3642462491989136e-01</leafValues></_>
        <_>
          <internalNodes>
            0 -1 168 -4.4694044627249241e-03</internalNodes>
          <leafValues>
            -6.1331087350845337e-01 7.3204733431339264e-02</leafValues></_>
        <_>
          <internalNodes>
            0 -1 65 8.8000844698399305e-04</internalNodes>
          <leafValues>
            -2.5536456704139709e-01 2.1117466688156128e-01</leafValues></_>
        <_>
          <internalNodes>
            0 -1 130 -2.4514980614185333e-03</internalNodes>
          <leafValues>
            3.3375293016433716e-01 -1.7436347901821136e-01</leafValues></_>
        <_>
          <internalNodes>
            0 -1 61 9.6956528723239899e-03</internalNodes>
          <leafValues>
            -6.9188997149467468e-02 7.3002851009368896e-01</leafValues></_>
        <_>
          <internalNodes>
            0 -1 132 6.7112548276782036e-04</internalNodes>
          <leafValues>
            -1.0362388193607330e-01 4.9765110015869141e-01</leafValues></_>
        <_>
          <internalNodes>
            0 -1 83 -3.9849326014518738e-02</internalNodes>
          <leafValues>
            4.4550377130508423e-01 -1.3668201863765717e-01</leafValues></_>
        <_>
          <internalNodes>
            0 -1 21 -1.1979361996054649e-02</internalNodes>
          <leafValues>
            6.1331838369369507e-01 -9.1735444962978363e-02</leafValues></_></weakClassifiers></_>
    <!-- stage 12 -->
    <_>
      <maxWeakCount>24</maxWeakCount>
      <stageThreshold>-1.1010214090347290e+00</stageThreshold>
      <weakClassifiers>
        <_>
          <internalNodes>
            0 -1 38 -3.1325828284025192e-02</internalNodes>
          <leafValues>
            4.1791045665740967e-01 -1.9377651810646057e-01</leafValues></_>
        <_>
          <internalNodes>
            0 -1 106 -7.5495679629966617e-04</internalNodes>
          <leafValues>
            1.3940992951393127e-01 -5.2305054664611816e-01</leafValues></_>
        <_>
          <internalNodes>
            0 -1 155 2.1897957194596529e-03</internalNodes>
          <leafValues>
            -2.7412152290344238e-01 2.3034842312335968e-01</leafValues></_>
        <_>
          <internalNodes>
            0 -1 42 3.3209589309990406e-04</internalNodes>
          <leafValues>
            1.6606636345386505e-01 -4.5997506380081177e-01</leafValues></_>
        <_>
          <internalNodes>
            0 -1 135 1.5164999291300774e-02</internalNodes>
          <leafValues>
            -2.5173544883728027e-01 3.0384802818298340e-01</leafValues></_>
        <_>
          <internalNodes>
            0 -1 31 9.3825515359640121e-03</internalNodes>
          <leafValues>
            -1.6003100574016571e-01 3.2014372944831848e-01</leafValues></_>
        <_>
          <internalNodes>
            0 -1 71 -2.3044776171445847e-03</internalNodes>
          <leafValues>
            2.7849477529525757e-01 -2.0699147880077362e-01</leafValues></_>
        <_>
          <internalNodes>
            0 -1 148 -5.6609009334351867e-05</internalNodes>
          <leafValues>
            1.9670896232128143e-01 -3.1160429120063782e-01</leafValues></_>
        <_>
          <internalNodes>
            0 -1 181 -1.8335082131670788e-05</internalNodes>
          <leafValues>
            -4.5606184005737305e-01 1.2034542113542557e-01</leafValues></_>
        <_>
          <internalNodes>
            0 -1 117 -2.4782782420516014e-03</internalNodes>
          <leafValues>
            3.2946825027465820e-01 -1.8017423152923584e-01</leafValues></_>
        <_>
          <internalNodes>
            0 -1 82 -4.8477556556463242e-03</internalNodes>
          <leafValues>
            3.1016549468040466e-01 -1.7971225082874298e-01</leafValues></_>
        <_>
          <internalNodes>
            0 -1 134 -3.2089687883853912e-03</internalNodes>
          <leafValues>
            7.8341841697692871e-02 -6.9683545827865601e-01</leafValues></_>
        <_>
          <internalNodes>
            0 -1 56 -1.0569560981821269e-04</internalNodes>
          <leafValues>
            3.8113757967948914e-01 -1.4803129434585571e-01</leafValues></_>
        <_>
          <internalNodes>
            0 -1 56 4.9443973693996668e-05</internalNodes>
          <leafValues>
            -2.9677325487136841e-01 2.7160340547561646e-01</leafValues></_>
        <_>
          <internalNodes>
            0 -1 9 6.4373027998954058e-04</internalNodes>
          <leafValues>
            8.5835509002208710e-02 -6.0929322242736816e-01</leafValues></_>
        <_>
          <internalNodes>
            0 -1 151 5.0273753702640533e-02</internalNodes>
          <leafValues>
            -8.2614913582801819e-02 6.9035589694976807e-01</leafValues></_>
        <_>
          <internalNodes>
            0 -1 28 -6.1602226924151182e-04</internalNodes>
          <leafValues>
            -5.1274037361145020e-01 1.1870460957288742e-01</leafValues></_>
        <_>
          <internalNodes>
            0 -1 127 -5.4533353250008076e-05</internalNodes>
          <leafValues>
            1.2654305994510651e-01 -3.7795779109001160e-01</leafValues></_>
        <_>
          <internalNodes>
            0 -1 85 -2.2513130679726601e-03</internalNodes>
          <leafValues>
            3.7744587659835815e-01 -1.3143323361873627e-01</leafValues></_>
        <_>
          <internalNodes>
            0 -1 94 1.3470418052747846e-03</internalNodes>
          <leafValues>
            -2.0344202220439911e-01 3.3465117216110229e-01</leafValues></_>
        <_>
          <internalNodes>
            0 -1 180 -3.4986182581633329e-03</internalNodes>
          <leafValues>
            -5.9510052204132080e-01 8.7128974497318268e-02</leafValues></_>
        <_>
          <internalNodes>
            0 -1 162 5.8288441505283117e-04</internalNodes>
          <leafValues>
            8.3189859986305237e-02 -5.5621635913848877e-01</leafValues></_>
        <_>
          <internalNodes>
            0 -1 124 1.7604352906346321e-03</internalNodes>
          <leafValues>
            6.3987374305725098e-02 -7.1075421571731567e-01</leafValues></_>
        <_>
          <internalNodes>
            0 -1 97 -3.6601945757865906e-03</internalNodes>
          <leafValues>
            -8.7467837333679199e-01 4.4391181319952011e-02</leafValues></_></weakClassifiers></_></stages>
  <features>
    <_>
      <rects>
        <_>
          0 0 4 22 -1.</_>
        <_>
          2 0 2 22 2.</_></rects>
      <tilted>0</tilted></_>
    <_>
      <rects>
        <_>
          0 0 18 15 -1.</_>
        <_>
          9 0 9 15 2.</_></rects>
      <tilted>0</tilted></_>
    <_>
      <rects>
        <_>
          0 0 18 8 -1.</_>
        <_>
          0 4 18 4 2.</_></rects>
      <tilted>0</tilted></_>
    <_>
      <rects>
        <_>
          0 7 20 6 -1.</_>
        <_>
          10 7 10 6 2.</_></rects>
      <tilted>0</tilted></_>
    <_>
      <rects>
        <_>
          0 8 2 14 -1.</_>
        <_>
          0 8 1 7 2.</_>
        <_>
          1 15 1 7 2.</_></rects>
      <tilted>0</tilted></_>
    <_>
      <rects>
        <_>
          0 9 14 14 -1.</_>
        <_>
          7 9 7 14 2.</_></rects>
      <tilted>0</tilted></_>
    <_>
      <rects>
        <_>
          0 11 2 6 -1.</_>
        <_>
          0 14 2 3 2.</_></rects>
      <tilted>0</tilted></_>
    <_>
      <rects>
        <_>
          0 11 14 6 -1.</_>
        <_>
          7 11 7 6 2.</_></rects>
      <tilted>0</tilted></_>
    <_>
      <rects>
        <_>
          0 11 13 6 -1.</_>
        <_>
          0 13 13 2 2.</_></rects>
      <tilted>0</tilted></_>
    <_>
      <rects>
        <_>
          0 12 2 6 -1.</_>
        <_>
          0 12 1 3 2.</_>
        <_>
          1 15 1 3 2.</_></rects>
      <tilted>0</tilted></_>
    <_>
      <rects>
        <_>
          0 12 1 8 -1.</_>
        <_>
          0 16 1 4 2.</_></rects>
      <tilted>0</tilted></_>
    <_>
      <rects>
        <_>
          0 15 3 6 -1.</_>
        <_>
          0 18 3 3 2.</_></rects>
      <tilted>0</tilted></_>
    <_>
      <rects>
        <_>
          0 19 2 3 -1.</_>
        <_>
          1 19 1 3 2.</_></rects>
      <tilted>0</tilted></_>
    <_>
      <rects>
        <_>
          0 19 2 5 -1.</_>
        <_>
          1 19 1 5 2.</_></rects>
      <tilted>0</tilted></_>
    <_>
      <rects>
        <_>
          0 19 4 4 -1.</_>
        <_>
          2 19 2 4 2.</_></rects>
      <tilted>0</tilted></_>
    <_>
      <rects>
        <_>
          0 20 14 4 -1.</_>
        <_>
          7 20 7 4 2.</_></rects>
      <tilted>0</tilted></_>
    <_>
      <rects>
        <_>
          0 22 3 2 -1.</_>
        <_>
          0 23 3 1 2.</_></rects>
      <tilted>0</tilted></_>
    <_>
      <rects>
        <_>
          0 23 6 1 -1.</_>
        <_>
          3 23 3 1 2.</_></rects>
      <tilted>0</tilted></_>
    <_>
      <rects>
        <_>
          1 5 2 14 -1.</_>
        <_>
          2 5 1 14 2.</_></rects>
      <tilted>0</tilted></_>
    <_>
      <rects>
        <_>
          1 8 10 7 -1.</_>
        <_>
          6 8 5 7 2.</_></rects>
      <tilted>0</tilted></_>
    <_>
      <rects>
        <_>
          1 11 10 8 -1.</_>
        <_>
          6 11 5 8 2.</_></rects>
      <tilted>0</tilted></_>
    <_>
      <rects>
        <_>
          1 14 10 3 -1.</_>
        <_>
          6 14 5 3 2.</_></rects>
      <tilted>0</tilted></_>
    <_>
      <rects>
        <_>
          1 20 16 4 -1.</_>
        <_>
          9 20 8 4 2.</_></rects>
      <tilted>0</tilted></_>
    <_>
      <rects>
        <_>
          1 22 4 2 -1.</_>
        <_>
          3 22 2 2 2.</_></rects>
      <tilted>0</tilted></_>
    <_>
      <rects>
        <_>
          1 23 4 1 -1.</_>
        <_>
          3 23 2 1 2.</_></rects>
      <tilted>0</tilted></_>
    <_>
      <rects>
        <_>
          1 23 6 1 -1.</_>
        <_>
          4 23 3 1 2.</_></rects>
      <tilted>0</tilted></_>
    <_>
      <rects>
        <_>
          2 16 1 6 -1.</_>
        <_>
          2 19 1 3 2.</_></rects>
      <tilted>0</tilted></_>
    <_>
      <rects>
        <_>
          2 20 4 4 -1.</_>
        <_>
          4 20 2 4 2.</_></rects>
      <tilted>0</tilted></_>
    <_>
      <rects>
        <_>
          2 21 6 3 -1.</_>
        <_>
          5 21 3 3 2.</_></rects>
      <tilted>0</tilted></_>
    <_>
      <rects>
        <_>
          2 23 8 1 -1.</_>
        <_>
          6 23 4 1 2.</_></rects>
      <tilted>0</tilted></_>
    <_>
      <rects>
        <_>
          3 19 1 4 -1.</_>
        <_>
          3 21 1 2 2.</_></rects>
      <tilted>0</tilted></_>
    <_>
      <rects>
        <_>
          3 19 8 4 -1.</_>
        <_>
          7 19 4 4 2.</_></rects>
      <tilted>0</tilted></_>
    <_>
      <rects>
        <_>
          3 19 8 5 -1.</_>
        <_>
          7 19 4 5 2.</_></rects>
      <tilted>0</tilted></_>
    <_>
      <rects>
        <_>
          4 12 16 6 -1.</_>
        <_>
          4 15 16 3 2.</_></rects>
      <tilted>0</tilted></_>
    <_>
      <rects>
        <_>
          4 12 20 12 -1.</_>
        <_>
          4 18 20 6 2.</_></rects>
      <tilted>0</tilted></_>
    <_>
      <rects>
        <_>
          4 14 16 2 -1.</_>
        <_>
          4 15 16 1 2.</_></rects>
      <tilted>0</tilted></_>
    <_>
      <rects>
        <_>
          4 15 8 3 -1.</_>
        <_>
          8 15 4 3 2.</_></rects>
      <tilted>0</tilted></_>
    <_>
      <rects>
        <_>
          4 15 14 8 -1.</_>
        <_>
          4 19 14 4 2.</_></rects>
      <tilted>0</tilted></_>
    <_>
      <rects>
        <_>
          4 16 14 4 -1.</_>
        <_>
          4 18 14 2 2.</_></rects>
      <tilted>0</tilted></_>
    <_>
      <rects>
        <_>
          4 18 13 4 -1.</_>
        <_>
          4 20 13 2 2.</_></rects>
      <tilted>0</tilted></_>
    <_>
      <rects>
        <_>
          4 20 9 4 -1.</_>
        <_>
          4 22 9 2 2.</_></rects>
      <tilted>0</tilted></_>
    <_>
      <rects>
        <_>
          4 21 15 2 -1.</_>
        <_>
          4 22 15 1 2.</_></rects>
      <tilted>0</tilted></_>
    <_>
      <rects>
        <_>
          4 23 4 1 -1.</_>
        <_>
          6 23 2 1 2.</_></rects>
      <tilted>0</tilted></_>
    <_>
      <rects>
        <_>
          5 4 2 12 -1.</_>
        <_>
          6 4 1 12 2.</_></rects>
      <tilted>0</tilted></_>
    <_>
      <rects>
        <_>
          5 5 8 14 -1.</_>
        <_>
          5 5 4 7 2.</_>
        <_>
          9 12 4 7 2.</_></rects>
      <tilted>0</tilted></_>
    <_>
      <rects>
        <_>
          5 7 10 12 -1.</_>
        <_>
          5 7 5 6 2.</_>
        <_>
          10 13 5 6 2.</_></rects>
      <tilted>0</tilted></_>
    <_>
      <rects>
        <_>
          5 10 14 8 -1.</_>
        <_>
          5 14 14 4 2.</_></rects>
      <tilted>0</tilted></_>
    <_>
      <rects>
        <_>
          5 12 13 6 -1.</_>
        <_>
          5 14 13 2 2.</_></rects>
      <tilted>0</tilted></_>
    <_>
      <rects>
        <_>
          5 13 1 3 -1.</_>
        <_>
          5 14 1 1 2.</_></rects>
      <tilted>0</tilted></_>
    <_>
      <rects>
        <_>
          5 15 9 2 -1.</_>
        <_>
          5 16 9 1 2.</_></rects>
      <tilted>0</tilted></_>
    <_>
      <rects>
        <_>
          5 23 4 1 -1.</_>
        <_>
          7 23 2 1 2.</_></rects>
      <tilted>0</tilted></_>
    <_>
      <rects>
        <_>
          6 0 18 1 -1.</_>
        <_>
          15 0 9 1 2.</_></rects>
      <tilted>0</tilted></_>
    <_>
      <rects>
        <_>
          6 0 11 16 -1.</_>
        <_>
          6 8 11 8 2.</_></rects>
      <tilted>0</tilted></_>
    <_>
      <rects>
        <_>
          6 0 12 24 -1.</_>
        <_>
          6 8 12 8 2.</_></rects>
      <tilted>0</tilted></_>
    <_>
      <rects>
        <_>
          6 4 6 16 -1.</_>
        <_>
          6 4 3 8 2.</_>
        <_>
          9 12 3 8 2.</_></rects>
      <tilted>0</tilted></_>
    <_>
      <rects>
        <_>
          6 13 14 4 -1.</_>
        <_>
          6 15 14 2 2.</_></rects>
      <tilted>0</tilted></_>
    <_>
      <rects>
        <_>
          6 15 2 1 -1.</_>
        <_>
          7 15 1 1 2.</_></rects>
      <tilted>0</tilted></_>
    <_>
      <rects>
        <_>
          6 18 5 2 -1.</_>
        <_>
          6 19 5 1 2.</_></rects>
      <tilted>0</tilted></_>
    <_>
      <rects>
        <_>
          6 19 8 2 -1.</_>
        <_>
          6 20 8 1 2.</_></rects>
      <tilted>0</tilted></_>
    <_>
      <rects>
        <_>
          6 20 12 4 -1.</_>
        <_>
          6 22 12 2 2.</_></rects>
      <tilted>0</tilted></_>
    <_>
      <rects>
        <_>
          6 20 13 4 -1.</_>
        <_>
          6 22 13 2 2.</_></rects>
      <tilted>0</tilted></_>
    <_>
      <rects>
        <_>
          6 21 10 2 -1.</_>
        <_>
          6 21 5 1 2.</_>
        <_>
          11 22 5 1 2.</_></rects>
      <tilted>0</tilted></_>
    <_>
      <rects>
        <_>
          7 0 10 16 -1.</_>
        <_>
          7 8 10 8 2.</_></rects>
      <tilted>0</tilted></_>
    <_>
      <rects>
        <_>
          7 0 16 16 -1.</_>
        <_>
          7 8 16 8 2.</_></rects>
      <tilted>0</tilted></_>
    <_>
      <rects>
        <_>
          7 5 6 7 -1.</_>
        <_>
          10 5 3 7 2.</_></rects>
      <tilted>0</tilted></_>
    <_>
      <rects>
        <_>
          7 8 1 6 -1.</_>
        <_>
          7 11 1 3 2.</_></rects>
      <tilted>0</tilted></_>
    <_>
      <rects>
        <_>
          7 8 6 1 -1.</_>
        <_>
          10 8 3 1 2.</_></rects>
      <tilted>0</tilted></_>
    <_>
      <rects>
        <_>
          7 15 12 8 -1.</_>
        <_>
          7 19 12 4 2.</_></rects>
      <tilted>0</tilted></_>
    <_>
      <rects>
        <_>
          7 16 2 2 -1.</_>
        <_>
          7 17 2 1 2.</_></rects>
      <tilted>0</tilted></_>
    <_>
      <rects>
        <_>
          7 18 3 2 -1.</_>
        <_>
          7 19 3 1 2.</_></rects>
      <tilted>0</tilted></_>
    <_>
      <rects>
        <_>
          7 18 5 2 -1.</_>
        <_>
          7 19 5 1 2.</_></rects>
      <tilted>0</tilted></_>
    <_>
      <rects>
        <_>
          7 21 8 2 -1.</_>
        <_>
          7 21 4 1 2.</_>
        <_>
          11 22 4 1 2.</_></rects>
      <tilted>0</tilted></_>
    <_>
      <rects>
        <_>
          8 10 2 1 -1.</_>
        <_>
          9 10 1 1 2.</_></rects>
      <tilted>0</tilted></_>
    <_>
      <rects>
        <_>
          8 10 6 2 -1.</_>
        <_>
          11 10 3 2 2.</_></rects>
      <tilted>0</tilted></_>
    <_>
      <rects>
        <_>
          8 18 7 2 -1.</_>
        <_>
          8 19 7 1 2.</_></rects>
      <tilted>0</tilted></_>
    <_>
      <rects>
        <_>
          8 18 7 4 -1.</_>
        <_>
          8 20 7 2 2.</_></rects>
      <tilted>0</tilted></_>
    <_>
      <rects>
        <_>
          8 19 16 4 -1.</_>
        <_>
          8 21 16 2 2.</_></rects>
      <tilted>0</tilted></_>
    <_>
      <rects>
        <_>
          8 20 4 2 -1.</_>
        <_>
          8 20 2 1 2.</_>
        <_>
          10 21 2 1 2.</_></rects>
      <tilted>0</tilted></_>
    <_>
      <rects>
        <_>
          8 20 16 4 -1.</_>
        <_>
          16 20 8 4 2.</_></rects>
      <tilted>0</tilted></_>
    <_>
      <rects>
        <_>
          8 20 10 2 -1.</_>
        <_>
          8 21 10 1 2.</_></rects>
      <tilted>0</tilted></_>
    <_>
      <rects>
        <_>
          8 21 9 2 -1.</_>
        <_>
          8 22 9 1 2.</_></rects>
      <tilted>0</tilted></_>
    <_>
      <rects>
        <_>
          8 22 10 2 -1.</_>
        <_>
          8 23 10 1 2.</_></rects>
      <tilted>0</tilted></_>
    <_>
      <rects>
        <_>
          8 22 13 2 -1.</_>
        <_>
          8 23 13 1 2.</_></rects>
      <tilted>0</tilted></_>
    <_>
      <rects>
        <_>
          9 5 10 5 -1.</_>
        <_>
          14 5 5 5 2.</_></rects>
      <tilted>0</tilted></_>
    <_>
      <rects>
        <_>
          9 6 9 6 -1.</_>
        <_>
          9 8 9 2 2.</_></rects>
      <tilted>0</tilted></_>
    <_>
      <rects>
        <_>
          9 7 4 3 -1.</_>
        <_>
          11 7 2 3 2.</_></rects>
      <tilted>0</tilted></_>
    <_>
      <rects>
        <_>
          9 8 4 1 -1.</_>
        <_>
          11 8 2 1 2.</_></rects>
      <tilted>0</tilted></_>
    <_>
      <rects>
        <_>
          9 9 2 1 -1.</_>
        <_>
          10 9 1 1 2.</_></rects>
      <tilted>0</tilted></_>
    <_>
      <rects>
        <_>
          9 9 2 2 -1.</_>
        <_>
          10 9 1 2 2.</_></rects>
      <tilted>0</tilted></_>
    <_>
      <rects>
        <_>
          9 15 1 4 -1.</_>
        <_>
          9 17 1 2 2.</_></rects>
      <tilted>0</tilted></_>
    <_>
      <rects>
        <_>
          9 16 1 2 -1.</_>
        <_>
          9 17 1 1 2.</_></rects>
      <tilted>0</tilted></_>
    <_>
      <rects>
        <_>
          9 18 1 2 -1.</_>
        <_>
          9 19 1 1 2.</_></rects>
      <tilted>0</tilted></_>
    <_>
      <rects>
        <_>
          9 19 2 4 -1.</_>
        <_>
          10 19 1 4 2.</_></rects>
      <tilted>0</tilted></_>
    <_>
      <rects>
        <_>
          9 20 9 4 -1.</_>
        <_>
          9 22 9 2 2.</_></rects>
      <tilted>0</tilted></_>
    <_>
      <rects>
        <_>
          10 9 4 1 -1.</_>
        <_>
          12 9 2 1 2.</_></rects>
      <tilted>0</tilted></_>
    <_>
      <rects>
        <_>
          10 10 2 1 -1.</_>
        <_>
          11 10 1 1 2.</_></rects>
      <tilted>0</tilted></_>
    <_>
      <rects>
        <_>
          10 10 2 5 -1.</_>
        <_>
          11 10 1 5 2.</_></rects>
      <tilted>0</tilted></_>
    <_>
      <rects>
        <_>
          10 14 4 2 -1.</_>
        <_>
          10 14 2 1 2.</_>
        <_>
          12 15 2 1 2.</_></rects>
      <tilted>0</tilted></_>
    <_>
      <rects>
        <_>
          10 16 3 2 -1.</_>
        <_>
          10 17 3 1 2.</_></rects>
      <tilted>0</tilted></_>
    <_>
      <rects>
        <_>
          10 17 1 2 -1.</_>
        <_>
          10 18 1 1 2.</_></rects>
      <tilted>0</tilted></_>
    <_>
      <rects>
        <_>
          10 17 2 2 -1.</_>
        <_>
          10 18 2 1 2.</_></rects>
      <tilted>0</tilted></_>
    <_>
      <rects>
        <_>
          10 17 6 6 -1.</_>
        <_>
          10 20 6 3 2.</_></rects>
      <tilted>0</tilted></_>
    <_>
      <rects>
        <_>
          10 19 2 2 -1.</_>
        <_>
          10 20 2 1 2.</_></rects>
      <tilted>0</tilted></_>
    <_>
      <rects>
        <_>
          10 19 3 2 -1.</_>
        <_>
          10 20 3 1 2.</_></rects>
      <tilted>0</tilted></_>
    <_>
      <rects>
        <_>
          10 20 4 2 -1.</_>
        <_>
          10 21 4 1 2.</_></rects>
      <tilted>0</tilted></_>
    <_>
      <rects>
        <_>
          10 20 8 2 -1.</_>
        <_>
          10 20 4 1 2.</_>
        <_>
          14 21 4 1 2.</_></rects>
      <tilted>0</tilted></_>
    <_>
      <rects>
        <_>
          10 20 14 4 -1.</_>
        <_>
          17 20 7 4 2.</_></rects>
      <tilted>0</tilted></_>
    <_>
      <rects>
        <_>
          10 22 7 2 -1.</_>
        <_>
          10 23 7 1 2.</_></rects>
      <tilted>0</tilted></_>
    <_>
      <rects>
        <_>
          11 1 3 18 -1.</_>
        <_>
          11 7 3 6 2.</_></rects>
      <tilted>0</tilted></_>
    <_>
      <rects>
        <_>
          11 5 6 8 -1.</_>
        <_>
          14 5 3 8 2.</_></rects>
      <tilted>0</tilted></_>
    <_>
      <rects>
        <_>
          11 7 4 4 -1.</_>
        <_>
          11 9 4 2 2.</_></rects>
      <tilted>0</tilted></_>
    <_>
      <rects>
        <_>
          11 9 4 8 -1.</_>
        <_>
          11 13 4 4 2.</_></rects>
      <tilted>0</tilted></_>
    <_>
      <rects>
        <_>
          11 10 2 2 -1.</_>
        <_>
          12 10 1 2 2.</_></rects>
      <tilted>0</tilted></_>
    <_>
      <rects>
        <_>
          11 15 2 2 -1.</_>
        <_>
          11 16 2 1 2.</_></rects>
      <tilted>0</tilted></_>
    <_>
      <rects>
        <_>
          11 17 1 2 -1.</_>
        <_>
          11 18 1 1 2.</_></rects>
      <tilted>0</tilted></_>
    <_>
      <rects>
        <_>
          11 18 2 1 -1.</_>
        <_>
          12 18 1 1 2.</_></rects>
      <tilted>0</tilted></_>
    <_>
      <rects>
        <_>
          11 18 1 2 -1.</_>
        <_>
          11 19 1 1 2.</_></rects>
      <tilted>0</tilted></_>
    <_>
      <rects>
        <_>
          11 19 4 2 -1.</_>
        <_>
          11 20 4 1 2.</_></rects>
      <tilted>0</tilted></_>
    <_>
      <rects>
        <_>
          12 4 4 7 -1.</_>
        <_>
          14 4 2 7 2.</_></rects>
      <tilted>0</tilted></_>
    <_>
      <rects>
        <_>
          12 8 6 14 -1.</_>
        <_>
          12 8 3 7 2.</_>
        <_>
          15 15 3 7 2.</_></rects>
      <tilted>0</tilted></_>
    <_>
      <rects>
        <_>
          12 8 10 2 -1.</_>
        <_>
          12 8 5 1 2.</_>
        <_>
          17 9 5 1 2.</_></rects>
      <tilted>0</tilted></_>
    <_>
      <rects>
        <_>
          12 10 2 1 -1.</_>
        <_>
          13 10 1 1 2.</_></rects>
      <tilted>0</tilted></_>
    <_>
      <rects>
        <_>
          12 10 12 7 -1.</_>
        <_>
          18 10 6 7 2.</_></rects>
      <tilted>0</tilted></_>
    <_>
      <rects>
        <_>
          12 11 12 3 -1.</_>
        <_>
          18 11 6 3 2.</_></rects>
      <tilted>0</tilted></_>
    <_>
      <rects>
        <_>
          12 14 4 2 -1.</_>
        <_>
          12 15 4 1 2.</_></rects>
      <tilted>0</tilted></_>
    <_>
      <rects>
        <_>
          12 16 1 2 -1.</_>
        <_>
          12 17 1 1 2.</_></rects>
      <tilted>0</tilted></_>
    <_>
      <rects>
        <_>
          12 16 3 2 -1.</_>
        <_>
          12 17 3 1 2.</_></rects>
      <tilted>0</tilted></_>
    <_>
      <rects>
        <_>
          12 17 1 2 -1.</_>
        <_>
          12 18 1 1 2.</_></rects>
      <tilted>0</tilted></_>
    <_>
      <rects>
        <_>
          12 19 12 5 -1.</_>
        <_>
          18 19 6 5 2.</_></rects>
      <tilted>0</tilted></_>
    <_>
      <rects>
        <_>
          12 21 4 2 -1.</_>
        <_>
          12 21 2 1 2.</_>
        <_>
          14 22 2 1 2.</_></rects>
      <tilted>0</tilted></_>
    <_>
      <rects>
        <_>
          12 21 4 2 -1.</_>
        <_>
          12 22 4 1 2.</_></rects>
      <tilted>0</tilted></_>
    <_>
      <rects>
        <_>
          13 6 6 16 -1.</_>
        <_>
          13 6 3 8 2.</_>
        <_>
          16 14 3 8 2.</_></rects>
      <tilted>0</tilted></_>
    <_>
      <rects>
        <_>
          13 7 2 1 -1.</_>
        <_>
          14 7 1 1 2.</_></rects>
      <tilted>0</tilted></_>
    <_>
      <rects>
        <_>
          13 7 8 14 -1.</_>
        <_>
          13 7 4 7 2.</_>
        <_>
          17 14 4 7 2.</_></rects>
      <tilted>0</tilted></_>
    <_>
      <rects>
        <_>
          13 8 3 1 -1.</_>
        <_>
          14 8 1 1 2.</_></rects>
      <tilted>0</tilted></_>
    <_>
      <rects>
        <_>
          13 9 4 12 -1.</_>
        <_>
          13 9 2 6 2.</_>
        <_>
          15 15 2 6 2.</_></rects>
      <tilted>0</tilted></_>
    <_>
      <rects>
        <_>
          13 10 8 3 -1.</_>
        <_>
          17 10 4 3 2.</_></rects>
      <tilted>0</tilted></_>
    <_>
      <rects>
        <_>
          13 10 10 5 -1.</_>
        <_>
          18 10 5 5 2.</_></rects>
      <tilted>0</tilted></_>
    <_>
      <rects>
        <_>
          13 15 3 2 -1.</_>
        <_>
          13 16 3 1 2.</_></rects>
      <tilted>0</tilted></_>
    <_>
      <rects>
        <_>
          13 16 1 2 -1.</_>
        <_>
          13 17 1 1 2.</_></rects>
      <tilted>0</tilted></_>
    <_>
      <rects>
        <_>
          13 17 1 2 -1.</_>
        <_>
          13 18 1 1 2.</_></rects>
      <tilted>0</tilted></_>
    <_>
      <rects>
        <_>
          13 18 1 2 -1.</_>
        <_>
          13 19 1 1 2.</_></rects>
      <tilted>0</tilted></_>
    <_>
      <rects>
        <_>
          13 19 2 2 -1.</_>
        <_>
          13 20 2 1 2.</_></rects>
      <tilted>0</tilted></_>
    <_>
      <rects>
        <_>
          14 12 10 5 -1.</_>
        <_>
          19 12 5 5 2.</_></rects>
      <tilted>0</tilted></_>
    <_>
      <rects>
        <_>
          14 13 4 10 -1.</_>
        <_>
          14 18 4 5 2.</_></rects>
      <tilted>0</tilted></_>
    <_>
      <rects>
        <_>
          14 14 2 2 -1.</_>
        <_>
          14 15 2 1 2.</_></rects>
      <tilted>0</tilted></_>
    <_>
      <rects>
        <_>
          14 15 2 2 -1.</_>
        <_>
          14 16 2 1 2.</_></rects>
      <tilted>0</tilted></_>
    <_>
      <rects>
        <_>
          14 17 1 2 -1.</_>
        <_>
          14 18 1 1 2.</_></rects>
      <tilted>0</tilted></_>
    <_>
      <rects>
        <_>
          15 15 1 2 -1.</_>
        <_>
          15 16 1 1 2.</_></rects>
      <tilted>0</tilted></_>
    <_>
      <rects>
        <_>
          15 23 4 1 -1.</_>
        <_>
          17 23 2 1 2.</_></rects>
      <tilted>0</tilted></_>
    <_>
      <rects>
        <_>
          16 3 1 3 -1.</_>
        <_>
          16 4 1 1 2.</_></rects>
      <tilted>0</tilted></_>
    <_>
      <rects>
        <_>
          16 8 8 12 -1.</_>
        <_>
          20 8 4 12 2.</_></rects>
      <tilted>0</tilted></_>
    <_>
      <rects>
        <_>
          16 11 2 2 -1.</_>
        <_>
          17 11 1 2 2.</_></rects>
      <tilted>0</tilted></_>
    <_>
      <rects>
        <_>
          16 13 2 1 -1.</_>
        <_>
          17 13 1 1 2.</_></rects>
      <tilted>0</tilted></_>
    <_>
      <rects>
        <_>
          16 13 1 2 -1.</_>
        <_>
          16 14 1 1 2.</_></rects>
      <tilted>0</tilted></_>
    <_>
      <rects>
        <_>
          16 13 8 4 -1.</_>
        <_>
          16 13 4 2 2.</_>
        <_>
          20 15 4 2 2.</_></rects>
      <tilted>0</tilted></_>
    <_>
      <rects>
        <_>
          16 15 1 2 -1.</_>
        <_>
          16 16 1 1 2.</_></rects>
      <tilted>0</tilted></_>
    <_>
      <rects>
        <_>
          16 16 1 2 -1.</_>
        <_>
          16 17 1 1 2.</_></rects>
      <tilted>0</tilted></_>
    <_>
      <rects>
        <_>
          16 16 8 2 -1.</_>
        <_>
          16 16 4 1 2.</_>
        <_>
          20 17 4 1 2.</_></rects>
      <tilted>0</tilted></_>
    <_>
      <rects>
        <_>
          17 12 2 1 -1.</_>
        <_>
          18 12 1 1 2.</_></rects>
      <tilted>0</tilted></_>
    <_>
      <rects>
        <_>
          17 21 6 3 -1.</_>
        <_>
          20 21 3 3 2.</_></rects>
      <tilted>0</tilted></_>
    <_>
      <rects>
        <_>
          18 2 4 1 -1.</_>
        <_>
          20 2 2 1 2.</_></rects>
      <tilted>0</tilted></_>
    <_>
      <rects>
        <_>
          18 21 4 3 -1.</_>
        <_>
          20 21 2 3 2.</_></rects>
      <tilted>0</tilted></_>
    <_>
      <rects>
        <_>
          19 1 4 2 -1.</_>
        <_>
          19 2 4 1 2.</_></rects>
      <tilted>0</tilted></_>
    <_>
      <rects>
        <_>
          20 16 3 8 -1.</_>
        <_>
          20 20 3 4 2.</_></rects>
      <tilted>0</tilted></_>
    <_>
      <rects>
        <_>
          20 21 4 1 -1.</_>
        <_>
          22 21 2 1 2.</_></rects>
      <tilted>0</tilted></_>
    <_>
      <rects>
        <_>
          21 12 3 12 -1.</_>
        <_>
          21 18 3 6 2.</_></rects>
      <tilted>0</tilted></_>
    <_>
      <rects>
        <_>
          21 18 3 4 -1.</_>
        <_>
          21 20 3 2 2.</_></rects>
      <tilted>0</tilted></_>
    <_>
      <rects>
        <_>
          22 0 2 23 -1.</_>
        <_>
          23 0 1 23 2.</_></rects>
      <tilted>0</tilted></_>
    <_>
      <rects>
        <_>
          22 1 2 10 -1.</_>
        <_>
          22 6 2 5 2.</_></rects>
      <tilted>0</tilted></_>
    <_>
      <rects>
        <_>
          22 3 2 20 -1.</_>
        <_>
          22 13 2 10 2.</_></rects>
      <tilted>0</tilted></_>
    <_>
      <rects>
        <_>
          22 7 2 7 -1.</_>
        <_>
          23 7 1 7 2.</_></rects>
      <tilted>0</tilted></_>
    <_>
      <rects>
        <_>
          22 8 2 9 -1.</_>
        <_>
          23 8 1 9 2.</_></rects>
      <tilted>0</tilted></_>
    <_>
      <rects>
        <_>
          22 11 2 5 -1.</_>
        <_>
          23 11 1 5 2.</_></rects>
      <tilted>0</tilted></_>
    <_>
      <rects>
        <_>
          22 11 1 10 -1.</_>
        <_>
          22 16 1 5 2.</_></rects>
      <tilted>0</tilted></_>
    <_>
      <rects>
        <_>
          22 14 2 6 -1.</_>
        <_>
          23 14 1 6 2.</_></rects>
      <tilted>0</tilted></_>
    <_>
      <rects>
        <_>
          22 15 2 6 -1.</_>
        <_>
          23 15 1 6 2.</_></rects>
      <tilted>0</tilted></_>
    <_>
      <rects>
        <_>
          22 16 2 6 -1.</_>
        <_>
          23 16 1 6 2.</_></rects>
      <tilted>0</tilted></_>
    <_>
      <rects>
        <_>
          22 22 2 2 -1.</_>
        <_>
          22 23 2 1 2.</_></rects>
      <tilted>0</tilted></_>
    <_>
      <rects>
        <_>
          23 0 1 18 -1.</_>
        <_>
          23 9 1 9 2.</_></rects>
      <tilted>0</tilted></_>
    <_>
      <rects>
        <_>
          23 6 1 12 -1.</_>
        <_>
          23 12 1 6 2.</_></rects>
      <tilted>0</tilted></_>
    <_>
      <rects>
        <_>
          23 17 1 4 -1.</_>
        <_>
          23 19 1 2 2.</_></rects>
      <tilted>0</tilted></_>
    <_>
      <rects>
        <_>
          23 18 1 4 -1.</_>
        <_>
          23 20 1 2 2.</_></rects>
      <tilted>0</tilted></_>
    <_>
      <rects>
        <_>
          23 21 1 2 -1.</_>
        <_>
          23 22 1 1 2.</_></rects>
      <tilted>0</tilted></_></features></cascade>
</opencv_storage>
