<?xml version="1.0"?>
<opencv_storage>
<stage0>
  <maxWeakCount>8</maxWeakCount>
  <stageThreshold>-1.6643065214157104e+00</stageThreshold>
  <weakClassifiers>
    <_>
      <internalNodes>
        0 -1 126267 -3.5553835332393646e-02</internalNodes>
      <leafValues>
        7.7984082698822021e-01 -5.3344482183456421e-01</leafValues></_>
    <_>
      <internalNodes>
        0 -1 127285 -4.9472990212962031e-05</internalNodes>
      <leafValues>
        4.9187961220741272e-01 -5.3295093774795532e-01</leafValues></_>
    <_>
      <internalNodes>
        0 -1 25541 5.7385870604775846e-05</internalNodes>
      <leafValues>
        -5.9722179174423218e-01 3.6560913920402527e-01</leafValues></_>
    <_>
      <internalNodes>
        0 -1 103603 2.1947473214822821e-05</internalNodes>
      <leafValues>
        -3.9444130659103394e-01 4.5939967036247253e-01</leafValues></_>
    <_>
      <internalNodes>
        0 -1 80579 -1.7379160970449448e-02</internalNodes>
      <leafValues>
        6.6169571876525879e-01 -2.8263300657272339e-01</leafValues></_>
    <_>
      <internalNodes>
        0 -1 12813 -1.4429989096242934e-04</internalNodes>
      <leafValues>
        -7.4777024984359741e-01 3.0325576663017273e-01</leafValues></_>
    <_>
      <internalNodes>
        0 -1 89322 -2.1933384705334902e-03</internalNodes>
      <leafValues>
        6.0420954227447510e-01 -3.5295987129211426e-01</leafValues></_>
    <_>
      <internalNodes>
        0 -1 118788 -2.6575276628136635e-02</internalNodes>
      <leafValues>
        7.6909381151199341e-01 -2.3674152791500092e-01</leafValues></_></weakClassifiers></stage0>
</opencv_storage>
