<?xml version="1.0"?>
<opencv_storage>
<stage5>
  <maxWeakCount>13</maxWeakCount>
  <stageThreshold>-1.2660943269729614e+00</stageThreshold>
  <weakClassifiers>
    <_>
      <internalNodes>
        0 -1 8475 1.8431681394577026e-01</internalNodes>
      <leafValues>
        -3.5023772716522217e-01 5.6976741552352905e-01</leafValues></_>
    <_>
      <internalNodes>
        0 -1 102603 -8.2181021571159363e-02</internalNodes>
      <leafValues>
        1.9318208098411560e-01 -7.4209904670715332e-01</leafValues></_>
    <_>
      <internalNodes>
        0 -1 114230 4.7112805768847466e-03</internalNodes>
      <leafValues>
        -2.3179347813129425e-01 6.4182221889495850e-01</leafValues></_>
    <_>
      <internalNodes>
        0 -1 151850 8.5081183351576328e-04</internalNodes>
      <leafValues>
        1.8798822164535522e-01 -6.9571262598037720e-01</leafValues></_>
    <_>
      <internalNodes>
        0 -1 106650 -1.3825520873069763e-02</internalNodes>
      <leafValues>
        4.6225073933601379e-01 -2.6849862933158875e-01</leafValues></_>
    <_>
      <internalNodes>
        0 -1 162324 -6.6267806687392294e-05</internalNodes>
      <leafValues>
        -5.2417927980422974e-01 2.4701713025569916e-01</leafValues></_>
    <_>
      <internalNodes>
        0 -1 105646 -3.9779554936103523e-04</internalNodes>
      <leafValues>
        2.6640257239341736e-01 -4.5701366662979126e-01</leafValues></_>
    <_>
      <internalNodes>
        0 -1 111828 3.4690683241933584e-04</internalNodes>
      <leafValues>
        -4.0653145313262939e-01 2.5301322340965271e-01</leafValues></_>
    <_>
      <internalNodes>
        0 -1 25788 3.4557661274448037e-04</internalNodes>
      <leafValues>
        1.6070932149887085e-01 -6.8703359365463257e-01</leafValues></_>
    <_>
      <internalNodes>
        0 -1 12830 -9.6578139346092939e-04</internalNodes>
      <leafValues>
        -6.6375690698623657e-01 1.3151945173740387e-01</leafValues></_>
    <_>
      <internalNodes>
        0 -1 89282 -1.7438528593629599e-03</internalNodes>
      <leafValues>
        4.7511953115463257e-01 -2.2298407554626465e-01</leafValues></_>
    <_>
      <internalNodes>
        0 -1 131075 4.6017289161682129e-02</internalNodes>
      <leafValues>
        -1.9671191275119781e-01 4.9730610847473145e-01</leafValues></_>
    <_>
      <internalNodes>
        0 -1 10024 -2.6682878378778696e-03</internalNodes>
      <leafValues>
        -7.4408620595932007e-01 1.7141653597354889e-01</leafValues></_></weakClassifiers></stage5>
</opencv_storage>
