<?xml version="1.0"?>
<opencv_storage>
<stage1>
  <maxWeakCount>8</maxWeakCount>
  <stageThreshold>-1.4418137073516846e+00</stageThreshold>
  <weakClassifiers>
    <_>
      <internalNodes>
        0 -1 131988 -3.9263747632503510e-02</internalNodes>
      <leafValues>
        7.1500629186630249e-01 -5.3327572345733643e-01</leafValues></_>
    <_>
      <internalNodes>
        0 -1 115162 -1.8000625073909760e-01</internalNodes>
      <leafValues>
        -8.1166523694992065e-01 3.8117763400077820e-01</leafValues></_>
    <_>
      <internalNodes>
        0 -1 12817 2.0350530394352973e-04</internalNodes>
      <leafValues>
        2.6997584104537964e-01 -7.8465878963470459e-01</leafValues></_>
    <_>
      <internalNodes>
        0 -1 12817 -5.1700061885640025e-04</internalNodes>
      <leafValues>
        -8.4441614151000977e-01 2.1119499206542969e-01</leafValues></_>
    <_>
      <internalNodes>
        0 -1 59918 2.3553678765892982e-02</internalNodes>
      <leafValues>
        -3.2285210490226746e-01 7.4289584159851074e-01</leafValues></_>
    <_>
      <internalNodes>
        0 -1 22338 5.3583711385726929e-02</internalNodes>
      <leafValues>
        -3.4104740619659424e-01 6.9240152835845947e-01</leafValues></_>
    <_>
      <internalNodes>
        0 -1 161848 1.8287976272404194e-03</internalNodes>
      <leafValues>
        3.0733454227447510e-01 -6.4957582950592041e-01</leafValues></_>
    <_>
      <internalNodes>
        0 -1 95728 5.2414154633879662e-03</internalNodes>
      <leafValues>
        -3.3031624555587769e-01 4.7412928938865662e-01</leafValues></_></weakClassifiers></stage1>
</opencv_storage>
